{
  "input_nodes": 4,
  "hidden_nodes": 5,
  "output_nodes": 3,
  "weights_ih": {
    "rows": 5,
    "cols": 4,
    "data": [
      [
        0.14358609926522964,
        1.1881437305237794,
        -0.8633877400025897,
        2.0808226356296293
      ],
      [
        20.148033745042053,
        21.18832325122064,
        -34.336537695685344,
        -34.12663956844043
      ],
      [
        -0.5439140949151743,
        -3.9869202149537863,
        5.422563669780834,
        2.422237412231553
      ],
      [
        0.9149096550651037,
        0.9927959607503651,
        0.8435047734305395,
        -0.8557671867275817
      ],
      [
        -0.81368150344075,
        -0.4638404303570372,
        -0.8326119308206862,
        -0.1959944972660007
      ]
    ]
  },
  "weights_ho": {
    "rows": 3,
    "cols": 5,
    "data": [
      [
        1.0910922334082087,
        1.175057090612668,
        -8.759926096443614,
        1.1998194012545926,
        0.48872029498561304
      ],
      [
        -4.253590338403753,
        5.623242582733181,
        7.168639252800296,
        -2.736420565146782,
        0.41580960426130553
      ],
      [
        -0.03801493659301338,
        -5.70777904989214,
        3.299296565356999,
        -0.23634780594946492,
        -0.04490331487045188
      ]
    ]
  },
  "bias_h": {
    "rows": 5,
    "cols": 1,
    "data": [
      [-0.5793191687205318],
      [34.678604771447006],
      [-1.4260970789887069],
      [0.5307333748809019],
      [-0.33176776542516406]
    ]
  },
  "bias_o": {
    "rows": 3,
    "cols": 1,
    "data": [[0.8990780839729227], [-2.9068915454791826], [-0.6607575843306415]]
  },
  "learning_rate": 0.1,
  "activation_function": {}
}
